svm_type c_svc
kernel_type rbf
gamma 0.0833333
nr_class 2
total_sv 7
rho -0.44634
label 0 1
nr_sv 4 3
SV
0.09624983775649808 0:0 1:0 2:0 3:0 4:0 5:1 6:0 7:0 8:1 9:0 10:0 11:1 
1.421056914116459 0:0 1:0 2:0 3:0 4:0 5:1 6:0 7:0 8:0 9:1 10:1 11:0 
3.139840844768948 0:0 1:0 2:0 3:0 4:0 5:0 6:0 7:1 8:1 9:0 10:0 11:0 
2.541431764584626 0:0 1:0 2:0 3:0 4:0 5:1 6:1 7:0 8:0 9:0 10:0 11:0 
-0.1202843540395405 0:1 1:0 2:0 3:1 4:1 5:0 6:0 7:0 8:0 9:0 10:0 11:0 
-0.7832988164395933 0:1 1:1 2:1 3:1 4:1 5:0 6:0 7:0 8:0 9:0 10:0 11:0 
-6.294996190747396 0:1 1:0 2:0 3:0 4:0 5:0 6:0 7:0 8:0 9:0 10:0 11:0 
