svm_type c_svc
kernel_type rbf
gamma 0.0454545
nr_class 2
total_sv 7
rho -0.00785397
label 0 1
nr_sv 4 3
SV
1.178526450216892 0:1 1:1 2:1 3:0 4:0 5:0 6:0 7:0 8:0 9:0 10:0 11:0 12:0 13:0 14:0 15:0 16:0 17:0 18:0 19:0 20:0 21:0 
0.8670862694825178 0:1 1:0 2:0 3:1 4:1 5:1 6:1 7:0 8:0 9:0 10:0 11:0 12:0 13:0 14:0 15:0 16:0 17:0 18:0 19:0 20:0 21:0 
1.565208229773764 0:0 1:1 2:0 3:1 4:0 5:0 6:0 7:0 8:0 9:0 10:0 11:0 12:1 13:1 14:1 15:0 16:0 17:0 18:0 19:0 20:0 21:0 
3.06895439364994 0:1 1:0 2:0 3:0 4:0 5:0 6:0 7:0 8:0 9:0 10:0 11:0 12:0 13:0 14:0 15:1 16:0 17:0 18:0 19:0 20:0 21:0 
-2.445428417806817 0:0 1:0 2:0 3:0 4:0 5:0 6:0 7:1 8:1 9:1 10:1 11:1 12:0 13:0 14:0 15:0 16:0 17:0 18:0 19:0 20:0 21:0 
-0.5364005807527658 0:0 1:0 2:0 3:0 4:0 5:0 6:0 7:1 8:1 9:1 10:1 11:1 12:0 13:0 14:0 15:0 16:1 17:1 18:1 19:0 20:0 21:0 
-3.697946344563531 0:0 1:0 2:0 3:0 4:0 5:0 6:0 7:1 8:0 9:0 10:0 11:0 12:0 13:0 14:0 15:0 16:0 17:0 18:0 19:1 20:1 21:1 
